12 24
b 1.1071742133879652 0.0 1.0279088284960327 0.0 0.0 1.07587551499528 1.1237725349089003 0.0 0.0 0.0 0.0 0.0 0.4239648930532594 0.8969565059976194 0.0 0.804133853109466 0.0 0.9670991690779481 0.7998829236882518 0.0 0.0 0.0 0.0 0.0
d 1.133365505715368 0.0 1.1024782440315122 0.0 0.0 1.0038632079441163 1.0940074212622877 0.0 0.0 0.0 0.0 0.0 0.24799084693814194 0.8623383091280435 0.0 0.9626205804485514 0.0 0.9347388472892957 0.813330054641244 0.0 0.0 0.0 0.0 0.0
e 0.0 0.9441158914908653 0.0 0.8812009859449639 1.0482843499772347 0.0 0.0 0.8910975091913744 0.757856901253183 0.9519943036213258 0.9626205804485514 0.804133853109466 0.0 0.0 1.1325609809039754 0.0 1.123561823514008 0.0 0.0 1.1086889442640009 1.1808871912855572 0.9783055807371728 1.1024782440315122 1.0279088284960327
g 1.1892509405642235 0.0 0.9783055807371728 0.0 0.0 1.1726029786950396 0.9848336098406469 0.0 0.0 0.0 0.0 0.0 0.39787159043775006 0.7768105527714189 0.0 0.9519943036213258 0.0 0.8295290749361285 0.922292143771934 0.0 0.0 0.0 0.0 0.0
i 0.0 0.8670752163380575 0.0 0.6971933847080509 1.1076100908773014 0.0 0.0 1.0032518624111961 0.9740493741850939 0.7768105527714189 0.8623383091280435 0.8969565059976194 0.0 0.0 1.1574169681675868 0.0 0.9181023148691682 0.0 0.0 1.074024936824577 0.9835721483036004 1.1892509405642235 1.133365505715368 1.1071742133879652
k 0.9181023148691682 0.0 1.123561823514008 0.0 0.0 1.1306562285977264 1.146224541281074 0.0 0.0 0.0 0.0 0.0 0.4747589080543724 0.6971933847080509 0.0 0.8812009859449639 0.0 0.9401343225483008 0.905216441777279 0.0 0.0 0.0 0.0 0.0
o 0.0 0.8378284971568415 0.0 0.9401343225483008 1.02671499680881 0.0 0.0 0.8382493738188113 0.9073042297482323 0.8295290749361285 0.9347388472892957 0.9670991690779481 0.05064083605429056 0.0 1.0795343935501234 0.0 1.1306562285977264 0.0 0.0 1.0792574733226061 0.9360632227296561 1.1726029786950396 1.0038632079441163 1.07587551499528
p 0.9835721483036004 0.0 1.1808871912855572 0.0 0.0 0.9360632227296561 1.2119863886909774 0.0 0.0 0.0 0.0 0.0 0.548895727280492 0.9740493741850939 0.0 0.757856901253183 0.0 0.9073042297482323 0.7406806697653883 0.0 0.0 0.0 0.0 0.0
r 1.1574169681675868 0.0 1.1325609809039754 0.0 0.0 1.0795343935501234 0.9593611376954483 0.0 0.0 0.0 0.0 0.0 0.3124565778362691 0.8670752163380575 0.0 0.9441158914908653 0.0 0.8378284971568415 0.8906483876114342 0.0 0.0 0.0 0.0 0.0
t 1.074024936824577 0.0 1.1086889442640009 0.0 0.0 1.0792574733226061 1.07253503796194 0.0 0.0 0.0 0.0 0.0 0.11741919066435032 1.0032518624111961 0.0 0.8910975091913744 0.0 0.8382493738188113 0.914706228330584 0.0 0.0 0.0 0.0 0.0
u 0.0 0.8906483876114342 0.0 0.905216441777279 1.150714166616194 0.0 0.0 0.914706228330584 0.7406806697653883 0.922292143771934 0.813330054641244 0.7998829236882518 0.0 0.0 0.9593611376954483 0.0 1.146224541281074 0.0 0.0 1.07253503796194 1.2119863886909774 0.9848336098406469 1.0940074212622877 1.1237725349089003
# 0.0 0.3124565778362691 0.0 0.4747589080543724 0.0 0.05064083605429056 0.0 0.11741919066435032 0.548895727280492 0.39787159043775006 0.24799084693814194 0.4239648930532594 0.0 1.1076100908773014 0.0 1.0482843499772347 0.0 1.02671499680881 1.150714166616194 0.0 0.0 0.0 0.0 0.0
