12 24
b 1.143735006025484 0.0 1.044208039176175 0.0 0.0 0.0 0.0 1.0406492277046482 0.0 0.0 1.070208516009344 0.0 0.3740406640499793 0.8870631024152293 0.0 0.9483644854673327 0.0 0.0 0.0 0.8622546353681974 0.0 0.0 0.8672684573390687 0.0
d 1.0133629238926463 0.0 1.0707052563382582 0.0 0.0 0.0 0.0 1.1239691360594661 0.0 0.0 1.093515582237912 0.0 0.419799438506982 0.8278072707365697 0.0 0.8840839660236326 0.0 0.0 0.0 0.9093750852834253 0.0 0.0 0.920789971877685 0.0
e 0.0 0.8278072707365697 0.0 0.8980245347168802 1.0849110227771186 0.896220355110361 0.8870631024152293 0.0 0.9131910938307453 0.9580445962532473 0.0 0.8639458166912408 0.0 0.0 1.0133629238926463 0.0 1.034478443985531 1.0918043117241403 1.143735006025484 0.0 1.0917883972875084 1.0923456879648383 0.0 1.063798378604553
g 1.0918043117241403 0.0 1.095948456880438 0.0 0.0 0.0 0.0 0.9776993556310317 0.0 0.0 1.1328749242227858 0.0 0.34426082349882564 0.896220355110361 0.0 0.9340219640360167 0.0 0.0 0.0 0.8865514675728362 0.0 0.0 0.864857110874736 0.0
i 0.0 0.8840839660236326 0.0 0.9556855528744832 1.0509271873118011 0.9340219640360167 0.9483644854673327 0.0 0.8400449693682464 0.8770439565977783 0.0 0.8638784380408943 0.0 0.0 1.0707052563382582 0.0 1.1755154601431095 1.095948456880438 1.044208039176175 0.0 1.0186585519306641 1.07027633153216 0.0 1.042159099695074
k 1.034478443985531 0.0 1.1755154601431095 0.0 0.0 0.0 0.0 1.1322398840097538 0.0 0.0 0.9468548451459107 0.0 0.3448959465903924 0.8980245347168802 0.0 0.9556855528744832 0.0 0.0 0.0 0.8795588405955335 0.0 0.0 0.8461608455264374 0.0
o 0.0 0.9093750852834253 0.0 0.8795588405955335 1.054073511447523 0.8865514675728362 0.8622546353681974 0.0 0.9504043533910974 0.89802832149469 0.0 0.909159032113289 0.0 0.0 1.1239691360594661 0.0 1.1322398840097538 0.9776993556310317 1.0406492277046482 0.0 1.0737139955582782 1.06119352122704 0.0 1.0835665037054958
p 1.0917883972875084 0.0 1.0186585519306641 0.0 0.0 0.0 0.0 1.0737139955582782 0.0 0.0 1.117305857738863 0.0 0.33657878751923026 0.9131910938307453 0.0 0.8400449693682464 0.0 0.0 0.0 0.9504043533910974 0.0 0.0 0.881417593918192 0.0
r 1.063798378604553 0.0 1.042159099695074 0.0 0.0 0.0 0.0 1.0835665037054958 0.0 0.0 1.1130527270297452 0.0 0.36768516901015574 0.8639458166912408 0.0 0.8638784380408943 0.0 0.0 0.0 0.909159032113289 0.0 0.0 0.9341619443298838 0.0
t 1.0923456879648383 0.0 1.07027633153216 0.0 0.0 0.0 0.0 1.06119352122704 0.0 0.0 1.0781132174077415 0.0 0.27636707575966574 0.9580445962532473 0.0 0.8770439565977783 0.0 0.0 0.0 0.89802832149469 0.0 0.0 0.8827656190855222 0.0
u 0.0 0.920789971877685 0.0 0.8461608455264374 1.1122711635804523 0.864857110874736 0.8672684573390687 0.0 0.881417593918192 0.8827656190855222 0.0 0.9341619443298838 0.0 0.0 1.093515582237912 0.0 0.9468548451459107 1.1328749242227858 1.070208516009344 0.0 1.117305857738863 1.0781132174077415 0.0 1.1130527270297452
# 0.0 0.419799438506982 0.0 0.3448959465903924 0.0 0.34426082349882564 0.3740406640499793 0.0 0.33657878751923026 0.27636707575966574 0.0 0.36768516901015574 0.0 1.0849110227771186 0.0 1.0509271873118011 0.0 0.0 0.0 1.054073511447523 0.0 0.0 1.1122711635804523 0.0
